0
15	30	30	1	
0.1064561497349052	-0.2605616099372889	-0.10062766758995617	-0.2670579360426313	-0.39975401178844233	-0.40433403424321057	-0.20865882930997082	-0.9288378831199456	-0.5302657431867829	-0.07814480578690303	0.14284483512055432	-2.467051497319324	-0.032720268386926585	0.016012943200979436	-0.39271544366204936	-0.17372063648612424	-0.40596256732697644	-0.030626465945709457	-0.19573900131623556	-0.25331000045864416	-0.22723373106500955	-0.2802183268611525	-3.058565760976455	-0.07833279752328273	-1.4728277924549826	-0.20598775700227795	-0.08771680073483176	-1.3522816617148206	-0.6323630262488269	-0.6312408009922278	
0.8071992619599015	-0.20458804470410774	-0.4095447164597654	-0.20447547777799707	0.19783459030937536	-0.21713150818360744	-0.23223363889000787	-0.4062377131534344	-0.22269839276120929	-0.6006318834129006	2.0381840959550623	-1.8806562577936035	-0.5199370379169301	-0.6165240591698606	-0.1829200886892384	-0.7967681383198583	-0.19069212148674095	-0.5645328895310995	-0.34066604935121836	-0.1695725446252641	-0.9372427242173794	-0.20114496999529144	-2.1636028658957285	-0.8592467425605967	-0.9478109257891195	-0.9713690402328063	-0.4018386342934271	-0.5899888374241982	-0.17207195055344993	-0.21068444107409845	
0.5720123462789146	-0.31545037679743027	-0.4207774962108604	-0.31022145679306207	0.15018000704321746	-0.2652825043389103	-0.30401764104081563	-0.23918552729923637	-0.23030110562427253	-0.6701323218578207	1.3777181198542094	0.5355094480707062	-0.5422811515916296	-0.5196108257932721	-0.20382169957259794	-0.8999594545402962	-0.22846168918013102	-0.5720383705468611	-0.3602220392603551	-0.25548555161323155	-1.0530319245849984	-0.30201546000219404	0.8962236340375753	-0.9140047676556238	-0.20693281312719472	-1.1208196832310764	-0.48471685716406154	-0.03344951391793432	-0.21531087683712977	-0.24463923450672176	
-0.23500634739625081	-0.06013770060100156	-0.03885870324896517	-0.01626807582368587	-0.18903712790942312	0.002039558561991583	-0.03986809926579942	0.0303798898734978	-0.05556635827252167	-0.028082024885188555	-0.9244651875837913	0.10252412698588206	-0.053149624565742494	-0.016051587987587757	-0.04772383950862116	0.011982370596131844	-0.0628566561736336	-0.014672412638446902	0.00757184945476844	-0.05021977377350264	0.020188302074890002	-0.08690209451923471	0.10756789715795152	0.03172313106906914	0.13387977019955832	0.07109377306013595	-0.04113501975480753	-0.0357893318657467	-0.054629782375493985	-0.05838183762606151	
-0.0840236744902616	0.012836051821832166	0.07610063404276349	0.08198473572681529	-0.12819960662496155	0.014032596986913604	0.046467850242522646	-0.02364842125988339	-0.010218097828419315	0.17875855710686833	-0.2474908295302273	-0.41831882844278656	0.1827198264990271	0.22902643514884888	7.083280510998441E-4	0.21542619819927067	0.05178435403321236	0.15740125466961413	0.07238498193547421	0.045044345761626636	0.19573128505313886	0.03305226491791367	-0.46642103894616194	0.2535687135223855	-0.12797218259079518	0.21178063722710677	0.17419760125563558	-0.15184183292797554	-0.06489458033049188	0.0036937749021116887	
0.18126981431112438	-0.2216357903437123	-0.1929924696801451	-0.1924972035631119	-0.043305154724216824	-0.14215270324984605	-0.2600629106599383	-0.2021291182437	-0.16553729177372944	0.12262087833679572	0.44258665090947297	-0.15795514788404685	-0.12463588379351509	-0.08055009283926634	-0.19470898167529652	0.32596282868520854	-0.21983473201740977	-0.038448401728305236	-0.13621226437031533	-0.25624240656271574	0.6103425820849325	-0.22023620197728652	-0.08478508804749385	0.38889781088103187	-0.23306165377747085	0.5377138100400117	-0.15652234295505188	-0.21358948553656665	-0.20373406088700124	-0.21800951488981615	
-0.14772516971143562	-0.27775171646698976	-0.26626919662932214	-0.26760710937490256	-0.213764978446942	-0.15372730325734035	-0.3817564231392993	-0.12429532136632584	-0.19683846749072648	0.04036810875349238	-0.8044676143201589	0.12061863393497733	-0.3801534216128254	-0.378452209311214	-0.16139801891421662	0.40927272656263575	-0.23612552999482672	-0.17154349646196068	-0.1979175521775539	-0.3760891410712598	0.5925019934513028	-0.23190624487132322	0.11880732670923937	0.22381803667764857	0.026143110987760874	0.608146648922936	-0.2972384919626576	-0.08280464607242723	-0.17691260560900074	-0.16976178883308535	
0.15106361438658927	-0.16762124221726585	-0.23669150684933707	-0.2038691640853762	-0.03908054551832141	-0.27007559188635394	-0.15467688747928587	-0.21533141717274576	-0.15737956580863305	-0.26255957604832714	0.37455829760518156	0.2571261400154231	-0.22639832643337016	-0.28867823180812474	-0.2113753728671324	-0.40064695865354577	-0.2203312305041811	-0.268945425946805	-0.22081640377787923	-0.16057538868407137	-0.520333496863191	-0.18085923956184627	0.5494286836609334	-0.38943601678758666	-0.2628099518126308	-0.5356636523554411	-0.28498163154880907	-0.20896800010597277	-0.18130418109883747	-0.22247143215508583	
-0.2925913811606878	-0.1547420429118794	-0.01145801571642226	-0.15862974364554783	-0.3113275009320883	-0.20252913881813114	-0.16573468259523655	-0.3732807425363042	-0.25302607798502796	-0.022436725972807412	-0.3702509816208272	-0.10108769140902511	-0.008227710337872788	0.07571509897790575	-0.2565759886040536	0.037159138180276205	-0.22678226116028913	0.0074398977392226	-0.09279469407659864	-0.14420533090960858	-0.006125019329374939	-0.20609234674822452	0.015058023709054656	0.11562739970506349	-0.3527626291324315	0.060881414339823185	-0.04556320359988501	-0.39259708021150236	-0.3575735384256967	-0.3236898718892768	
-0.575490235107514	0.0773525470281709	0.294206804877639	0.09363678388099106	-0.35526175107934094	0.0632538579315993	0.05555418988740367	-0.08463355857113093	-0.02860292240112986	0.3409899515879674	-1.5212296478512097	-0.42783428570743204	0.34808751816360756	0.4324967985710102	2.4473270938917994E-4	0.4950020321308932	-0.05952374249267599	0.37039212870148003	0.19591684830806816	0.04580196619150777	0.6186366843320691	0.06569792011598237	-0.4996110637084062	0.5207856315875228	-0.1082642098956291	0.6463087300186453	0.28309870063445725	-0.25453669725506844	-0.08260666764353408	-0.05627979630228802	
-0.2550684234027701	0.10079935589171385	0.12913800599105366	0.09259886460922946	-0.16519060079347017	0.07344695344443945	0.07261569047040328	-0.12029741241097655	-8.648716129923529E-4	0.1937454135525607	-0.37613188990846735	-0.5030552351359889	0.24555560978826801	0.2927425560709276	-0.03323816905698158	0.3453828650823215	0.002268064720209868	0.24455433013398903	0.11911435659147905	0.07551970720494328	0.3610674236186187	0.07892975194662917	-0.5859866140642713	0.32444035232005686	-0.23042045968361444	0.3258431196894897	0.20614280815724914	-0.19711173305914031	-0.015064433106588865	-0.030230892537541076	
0.19664123839856137	-0.3770058706758858	-0.40006502457076354	-0.31070680705697934	0.0627186531530914	-0.26098221450874337	-0.3457155856653133	-0.2565092357515912	-0.268946441263974	-0.14333518198760967	0.6870568146361468	-0.0704399441662548	-0.4431212708347992	-0.5453927425552634	-0.2584045426356865	0.08598690448184634	-0.2686312885013981	-0.32547159734448755	-0.3107176847965342	-0.4020994488255538	0.3114686908629322	-0.27442789875261486	0.0631093264107756	-0.046024958911230186	-0.28228152101003345	0.29477413614759446	-0.42039842473677863	-0.15071773375206848	-0.194907215196109	-0.17792013760508696	
0.4593570556555251	-0.2669002629177183	-0.32058881654172866	-0.21817865537241368	0.10594311015165342	-0.10320278221361795	-0.30791244574869936	-0.05250893276378267	-0.1501206246362799	-0.2102958378465841	0.592965248204964	-0.02671782357836669	-0.3618737530513048	-0.49677006177748306	-0.11474371712120385	-0.09116429493330915	-0.08554625533867637	-0.3920630243101958	-0.23321201042135586	-0.2834837554490133	-0.03475433059280325	-0.15677311401782965	-0.11429719428625547	-0.20944339230218584	-0.020645682540855373	-0.07412092752772138	-0.37612982715963655	-0.01789385005377768	-0.04073892275624638	-0.11190248255087627	
-0.21065182061418317	-0.12302217467229133	-0.12901181300044726	-0.0547640154730183	-0.2109953981854869	-0.10005878891841688	-0.09991131782143502	-0.13472260746286457	-0.13941701054379418	-0.051110270309858284	-0.5743519403568764	-0.025754009867421403	-0.0698128675457749	-0.11806128433105309	-0.10181377793158784	0.024407269644517546	-0.11566256661669475	-0.08214820331840157	-0.10369088754040837	-0.0430691061171155	-0.016630765651848543	-0.024696986745692432	0.12384107182629606	0.01706567041738425	-0.12201211449708782	-0.052930038109802416	-0.07365929368971451	-0.21464130199098358	-0.14134237088463608	-0.10743788320561912	
-0.3745968402875457	-0.1352708549690026	-0.06915471553951016	-0.1257381486774184	-0.31933809721666434	-0.11328020964380407	-0.15009100620358692	-0.15681624940588115	-0.13473454536845933	-0.027471792720337153	-0.6852366474169082	0.0742971350046858	-0.07942792410466636	-0.07657589252876126	-0.13747094581856276	0.045988280803045345	-0.15746155185444152	-0.0737599714402237	-0.1452744438690586	-0.16885203507069346	0.0964405562259321	-0.09064134596867367	0.2471539145133131	0.09635700675877315	-0.1555262185955911	0.1328843363783689	-0.015876559264466985	-0.2423476519094507	-0.15285075994726272	-0.1425411531126049	
-0.5192560465916571	-0.12705480197046679	-0.08419103441402971	-0.16505414494326143	-0.4184704263313177	-0.20160315652760408	-0.1717297117367814	-0.34629835737704284	-0.3105796889564087	-0.08388820385973511	-1.6666405311783856	0.24501963406551702	-0.023585229192830046	0.04864524865853427	-0.26652455302353156	0.06560626074522534	-0.19729698351691408	-0.0022707068748296366	-0.10707343979606698	-0.20305078585190853	-0.025270441192178816	-0.20750755185804212	0.5108568299575689	0.0378076969037319	-0.23643204627120537	0.065759555587686	-0.027278128764236555	-0.31168873634954153	-0.3379109342598203	-0.27041616584901595	
0.036421610354285185	-0.0010225700383832419	0.006898875873014963	-0.06129583355457416	0.0019248753351144717	-0.158833128634183	-0.2002561573130534	0.005010996479487283	-0.29799944672767653	-0.03200143987798663	-0.2769569158260664	-0.3740251873948325	-0.11315650352046722	-0.26567924852873426	-0.1597898558771719	-0.35324377862084827	-0.35791437345491	-0.3743266707427861	-0.3134463373961982	-0.2688253277111079	0.19353633588129707	-0.2722796261830374	-0.39460093871744134	-0.18467995465371914	0.06309330501536048	-0.22979305277074882	-0.26922175674795296	-0.42795536097051096	-0.24492877018831566	0.08444467287768931	
-0.17449148686594484	-0.14203766459399642	-0.08455333770070374	-0.11875056571717083	-0.11875576776408509	-0.06144322143927065	-0.0051117672451843205	-0.1122416789017504	0.005389744714687877	-0.1381604093851084	0.016084288063066627	0.053526444284869946	-0.038718209861128464	-0.035162733667294555	0.005469489740093785	0.003191095118027288	0.03347736381883905	0.08538517255946525	0.004581346871436348	0.03086191475199607	-0.20196027560383686	0.0180189249739462	0.013488255578149737	-0.007953069577487929	-0.09285572908288099	-0.0033971765339890878	-0.037223790598241706	0.10225495852471905	-0.030729173786256444	-0.13928608436963083	
-0.20201967609176633	-0.1495645892251717	-0.1581603902702037	-0.16142435666530258	-0.10259751078980668	-0.05970650854433537	-0.0027917182665423345	-0.14871010670031168	0.010033236004613472	-0.08079905129957766	-0.04088396946788223	0.08062884984414849	-0.07396422552796961	0.02187197847284676	-0.07432696718805158	0.03190952566271612	0.08430465309809504	0.028532982572049184	-0.02251967882306604	0.015992077916318573	-0.33951561464583585	0.007661350516184349	0.10378185473689756	-0.11087741624195242	-0.20297235506789846	-0.02539954449085427	-0.020129689047416476	0.10302370288464181	-0.02059915046910843	-0.16023616375762406	
-0.12946047829931226	-0.07412444153203794	-0.12724417634889681	-0.14804578183570302	-0.11159382290868296	-0.0969875648004131	-0.030599232009204717	-0.09741845211066978	0.030448757139310268	-0.1336812593042002	-0.006671057455378082	-0.015038494432845304	-0.048050269545209544	-0.05971349245594476	-1.4901235371043655E-4	0.055129931634710826	-0.023640929264171905	0.057687689443235386	0.026554157018513543	-0.03780038141712522	-0.18829368086603857	0.016843857113075084	0.025119196162570828	-0.09227185912112872	-0.11570973253785846	-0.033120768213592305	0.011796044188152452	0.041284964497630625	-0.002337776876675373	-0.19852104074884033	
-0.0011973269132975852	-0.027195948773410486	-0.06090719849421217	-0.06906846212515168	-0.026424740919823848	-0.05407601008070468	-0.08685128675127905	-0.04611789695843987	-0.1165576605569976	-0.03165971135334818	-0.04527663097578861	-0.147923862857794	-0.10547286103823582	-0.08232127632506345	-0.0722822968245875	-0.12455414853601357	-0.07378657027863855	-0.0752091550627035	-0.09391671881614237	-0.1371488277455616	-0.03439739603371358	-0.1302233604832141	-0.08095768839968102	-0.06704810876739961	-0.07214747282302567	-0.0756749543065459	-0.05372823127602881	-0.15883847359291045	-0.08210109396811621	-0.041018305662657926	
-0.05168303866102274	-0.021101509667877088	-0.0830080330695576	-0.11302106383155605	-0.05890030334696359	-0.0073245635618978166	0.004010616403600422	-0.08466114910842105	0.018066406916116183	-0.03860981072542984	-0.016799209734543456	-0.002009443687734058	-0.0903328539320697	-0.01969674817732902	-0.07481004085727587	-0.009026491989370824	-0.04581177149763915	-0.05778516181594551	-0.021425613417557516	-0.030240781997205656	-0.14835730047131787	-0.01303486865813956	-0.030911046376281975	-0.06488676339293915	-0.04117078968751584	-0.06570330123020775	-0.03850146273605948	-0.04700615784502083	-0.06254989333175533	-0.05700651273109003	
-0.11623071619280603	-0.0972042525611166	-0.10537666814566102	-0.08085250908827547	-0.15325796601121233	-0.020813421370165116	0.0037679192346087723	-0.17242818480091196	0.022668902531320784	-0.11228355436341492	0.031424944108652805	0.032028801400773535	-0.026822146704516	0.043172671920363156	-0.015214167287459151	0.06329932415914713	0.015638849821922624	0.09862975501344211	-2.124446570124452E-4	-0.0018842894436385048	-0.2973023521899579	0.041623823435295186	0.11312682000679398	-0.019162854463028924	-0.20529746767619808	0.013756982510481193	0.032389271115458224	0.12325383651720512	-0.049718705890771445	-0.20638232169053095	
-0.011533321398034119	0.016290802116296774	0.01738823631717755	0.015633936554174093	-0.030046770180482397	-0.015674769429007866	-0.05108851948135671	0.025364725611182817	-0.052575111037560976	0.031096111582890527	0.018493108840694314	-0.06480049651761188	-0.03573513730697572	0.004778007626602426	-0.01415803593537483	-0.05056984426744757	-0.08469755741776322	-0.05425560275509114	-0.05244715552950696	-0.07210717061320737	9.448085990484635E-4	-0.036779252342033636	-0.04442808972750629	0.0019147017192668717	0.009009597084039514	-0.05189493707801396	-0.07077986184963486	-0.10169667925999246	0.01340534309602846	0.055576027521333005	
-0.036324578241701974	-0.021812433031562068	-0.08032627278168657	1.6999961628730553E-4	-0.00717594153710007	0.002237119488806782	-0.03653388363328786	-0.01472869695759882	0.020300280442613335	-0.0714215224740906	-0.014313686564407672	-0.06036602336752557	-0.00792232742526123	-0.01918302169048919	-0.004234347294334308	0.006691846227157078	0.011811176955978601	-0.04048628444917747	-0.06269856685316672	-0.025570442720291783	-0.10690825874952792	-0.05851950849233438	0.027109129754181217	-0.008313986825878944	-0.06092978264523044	0.012803332586099817	-0.056508735005108994	0.028265785375263888	-0.013178314664240152	-0.10025211622862909	
-0.17193708038877903	-0.144987913321279	-0.10771534353910027	-0.1595012741507772	-0.13232261191758812	-0.04642030598690818	-0.06653330959817094	-0.20378622767348648	0.01630820217974546	-0.1373229064540316	-0.04402592883049035	0.06370296603206412	-0.06500410003571401	0.026124097494565877	-0.08431416178083478	0.020856845939667894	0.10035790566369333	0.04917123713061244	0.06799585314076868	-0.00324430606917144	-0.3261568195913138	-0.01175589506822739	0.11030004259891919	-0.07580371759354418	-0.16156769855637693	-0.06658175171318106	-0.018139241891868822	0.18272523581124755	-0.06870038717976694	-0.22234788751734988	
0.2780993825746713	0.24028739429983725	0.15724831907142062	0.12895477331647304	0.10723563073524908	-0.09031357816390358	-0.3222352680381403	0.19783519479383194	-0.5153313529374095	0.08045442457176927	-0.38252811247766894	-0.6434123781942447	-0.1153295802830539	-0.35999035280296726	-0.22656933796113685	-0.5860547739796446	-0.6112306825552375	-0.6754433071900757	-0.4465906580475123	-0.5163312211149584	0.7037970227410693	-0.35569656973045016	-0.7263461077379068	-0.11164553314947495	0.3551847518239719	-0.33917114271190274	-0.3632042190355556	-0.8724216290891589	-0.3124301856504144	0.4121804223162185	
0.35688051583163677	0.3178325512126557	0.33206139798036255	0.3198283273562748	0.27257640336451455	0.07981125861746252	-0.09861715902264634	0.35091601463316063	-0.28736205059645065	0.19364508651547516	-0.11543418223409527	-0.40196587802672	0.04483161158310776	-0.2231201150298078	0.008634946106596075	-0.3169376676529986	-0.39266073716052985	-0.4782001680442257	-0.23552240369640964	-0.24026321379012694	0.6424531870219586	-0.2209804952116724	-0.4680514908777889	0.056796193980866896	0.42995172687892813	-0.1452483637336331	-0.191308435840725	-0.6318953353005726	-0.0970653604351532	0.47355973821284214	
-0.22880944654801177	-0.13793066565717815	-0.13071389943200187	-0.1511683976240401	-0.15951817818422073	-0.10943983810162795	-0.05182147343316523	-0.12942210589807115	0.022085213797753352	-0.1831744916924691	0.016247648437077034	0.13391251717818037	-0.052773998297388706	0.021849822003241082	-0.08230160205921855	0.05302137000461978	0.07386956663971327	0.12679533873392357	-0.009148708520728856	0.07924997131907928	-0.3688272592352287	0.06369232354699825	0.12402413385328168	-0.07105262791597702	-0.23118484627734162	-0.04683004147390172	0.0012491399002088576	0.2147503811317264	0.018153530735382558	-0.21208817170114114	
-0.2436964738434891	-0.18853029883903635	-0.2089668511891367	-0.21294401797274912	-0.20442905821065951	-0.11487880602604729	0.019423511222888035	-0.14747272022280317	0.007558918121565476	-0.16566439975387875	0.06576752432973093	0.12597586919326326	-0.08442254328855094	0.05216261006108262	-0.08101179867372328	0.06542115114005008	0.14067909054532143	0.09439505332603353	0.07643257719972422	0.05430136225073878	-0.4408123741358545	0.047157217506077834	0.12941970414704182	-0.026742206309210977	-0.2769298961201385	-0.021232020006089182	0.028179912329494447	0.15664297926390444	-0.0445587537040842	-0.25471439478674834	
-0.06983271671945554	-0.0584034373029813	-0.07725793150195684	-0.020238499521607178	-0.07327855125868861	-0.09258371228894764	-0.028044585169665105	-0.051949136808140874	-0.005522733081750765	-0.012792592305405654	-0.047122827887184984	0.0024246521362769158	-0.026023446355613444	0.016762854158668995	-0.058105060615044224	-0.017659598214927665	-0.0021081104404916365	-0.03577119073531623	-0.002844210887717955	-0.048545114972613435	-0.18969140847862348	-0.06502889023657744	0.007024278414448217	-0.017394339423238484	-0.09798966316184525	0.0011066460031799372	0.014599949790566544	-0.015699014992476164	-0.07092039143148256	-0.13233671438921257	
-0.2617548122679102	-0.2520990788839704	-0.15105629070101828	-0.20152581869524197	-0.2060863718469098	-0.08728233995898227	-0.07196393541610573	-0.23893594050459646	0.07072197161937666	-0.14919305123131002	-0.028644579668801743	0.12739550395795132	-0.10480699888655742	-0.03834573591519672	-0.11686957252341007	0.10021548007239577	0.04587725751290812	0.0549808898047492	-0.008933808930187696	0.054781283069235326	-0.38950329955024404	0.018466220483544887	0.1250208878560761	-0.07794314755294979	-0.2544451798560419	-0.038325951825578235	0.01515897180051707	0.18341890562215651	-0.02802705073815751	-0.2700892579556321	
-0.08147755455906606	-0.11553463217662431	-0.0966720055682816	-0.08377935663098876	-0.10594663515601176	-0.0192483972487048	0.01592018620724255	-0.11371723557116277	-0.03896627959077848	-0.06263651607851543	-0.022134101677708882	-0.046506419708812446	-0.06570651186790114	0.022221034474194178	-0.0017485570827666386	-0.05311950247257337	0.018083652455389586	-0.006204791472575957	0.015543402622011674	0.027023993546247568	-0.14062254997066723	-0.043700398781204644	0.03628897611943148	0.003093959012106586	-0.11952233993072044	0.013603874699371543	-0.013025839216572037	0.016927214510731155	-0.0018370404229825993	-0.05335456649198116	
-0.18314183941820977	-0.1748664824054351	-0.19356426071349897	-0.1922008332156455	-0.19813058094288924	-0.036289758993742274	-0.014971557513098144	-0.1218406096975189	0.035540313012937225	-0.15205226502982946	0.008922702906521167	0.057149177565686576	-0.05694831178468321	0.03560397370672412	-0.031640083322363906	0.044563032265162734	0.0629345574759636	0.13011609339559269	0.01585189260778572	0.07109311112084712	-0.40194660091126844	0.04137262428087027	0.15057873001658897	-0.08555171931209533	-0.23142183318970366	0.017870255225845028	0.005287412913649656	0.14386993577437895	-0.0538431749623269	-0.28519015342335546	
-0.10027481232911133	-0.12359396113301224	-0.09568611008370033	-0.1589652411353895	-0.08872904435402822	-0.06302359161480289	-0.054258965355684724	-0.15250695204168468	0.020386769730714772	-0.0930173998842914	-0.05121452735435993	0.026405387828496045	-0.05925414000451973	-0.020330529880367012	-0.03929912141235584	0.03142277574917464	0.03449731172010822	0.030048234244795236	-0.03004939769241105	-0.026137499554444558	-0.2837503678404182	-0.04906129473818708	0.07716475468508212	-0.027200364395449834	-0.155409738801881	-0.06470786555420607	0.0321775185733963	0.11636229135429421	-0.06080877215744719	-0.15068258711197818	
-0.15035939645742194	-0.11429141598147809	-0.1190988772431008	-0.09790688949717526	-0.09650278424906397	-0.017766579481497652	-0.025122366837231878	-0.16088863162847505	0.05764178297634353	-0.13223585607751784	-0.007114210111303875	0.0030531344104136196	-0.03089410665992236	0.03536470736837632	-0.08608325139725181	-0.005628495593549704	0.06660981448418647	0.048018409515200686	0.049267488348828596	-0.03004668367646948	-0.291050605085223	0.038567887662092966	0.07043786894413022	-0.0833969790468303	-0.10545163195880411	-0.018300378649563884	-0.03998395896213495	0.09082820612067344	0.02533289524591913	-0.16673328595222492	
-0.3086301651239443	-0.20339232184467324	-0.23882776886409596	-0.19214454448263724	-0.21440891708100637	-0.1347385407541394	0.01146233250035609	-0.27238927269483243	0.009615047887439502	-0.19032057280333609	0.03243811397848417	0.12295597255813392	-0.08712143199951781	-0.008946609310884299	-0.08048908501745239	0.08349941503612925	0.14044244244919257	0.14346334436882027	0.011529254570579456	0.093834885710468	-0.4614010632968167	-0.019825070031424835	0.17570610390755667	-0.13147290581345475	-0.30466006746844043	-0.05087519653805901	0.016577143772924803	0.19472397431696464	0.01793347185108534	-0.3236313291941129	
-0.14014082708695563	-0.1358886403843433	-0.14432982868807415	-0.0848454248341845	-0.049693017307184575	-0.06035532121725671	0.023907158064388947	-0.09426581704312928	0.04875318914427796	-0.11950205385712374	-0.04815627557360738	0.01380341751335797	-0.0828345863610685	-0.01483920153383681	-0.08128847990834795	-0.035154333159505176	-0.02636103103727322	-0.02408120816460394	-0.020571093761797662	0.04254523590993506	-0.2646256487983971	0.026819831104721772	0.025505054696990288	-0.08217411798411159	-0.12801101624820313	-4.1708025988719804E-5	-0.033409134494587524	0.009102638625076431	-0.06203516172310025	-0.15100241156579944	
0.47424285528255944	0.397279082015849	0.46184886634394084	0.375223942163155	0.3920130549228721	0.11897974560970524	-0.14758710800864652	0.44908912726464456	-0.33662699875404956	0.2750656915424819	-0.24775102336050162	-0.5734371494133235	0.04922638664915421	-0.28155920607005536	0.07421862565348994	-0.3700729340602129	-0.5221229787340136	-0.6259850860098493	-0.2835452353799952	-0.3703541395766038	0.8467334923431019	-0.25782996914992123	-0.6052298097048043	0.08773644319561655	0.5346614648298716	-0.1792292006295546	-0.1834140425335309	-0.7771416814131799	-0.10573722638454587	0.5990396745788641	
-0.1927825847693505	-0.2216726734939281	-0.194244081855288	-0.2105202264418519	-0.17763719865977423	-0.08018284777933853	0.018879204900764262	-0.19591755117583504	0.04587806081452108	-0.16537312767611292	-0.02546321998037005	0.14322662518623003	-0.07983286306985604	-0.018174410157980256	-0.10263033808195035	0.08889188929090899	0.12195088898552664	0.11087268227055977	0.06420869541378732	0.03186314163835819	-0.46632705791697326	0.046912217663385616	0.07392441092734149	-0.04766243385161329	-0.29577039636522745	-0.0031356530994516327	-0.011103330255717924	0.22949406561626945	-0.037802181884485614	-0.2677866059509275	
0.0819888697784611	0.10267440328822497	0.13139825876854724	0.03348075715840342	0.08635986949128052	0.04197624308984898	0.01124659204292938	0.0943369840088093	-0.05152869288008811	0.1112607576139861	-0.06257124764715298	-0.07730091805327718	0.05775984486945666	-0.06639401041431629	0.021707670175979393	-0.04716494532613404	-0.10883455903768616	-0.09032187639157976	-0.07930981491220979	-0.06707776481504049	0.139214822516385	-0.08884297766699908	-0.16003819330472083	0.011096577137801739	0.15189712624535337	-0.07346164626044062	-0.07668514431205209	-0.21245090860040633	1.8283327205630064E-4	0.12786763231185183	
-0.2436657514502489	-0.20900570729368814	-0.27937495672615725	-0.2183257665020219	-0.2571625929761806	-0.07858796420454005	-0.05829566927731843	-0.22375447420307382	0.002214952402224868	-0.1654070852494754	0.05350625752341412	0.16643186464926185	-0.1235355246946185	9.985475900097427E-4	-0.11429096282263707	0.06053621694414136	0.1560874608394004	0.1830197095297824	0.004055970518166424	0.010283859112212175	-0.48581325640400774	-0.04005751398696594	0.1310176177555403	-0.11301689123977263	-0.2950960813682643	-0.0048789805084828155	-0.012726931644790591	0.2661279173663137	-0.058735868772963336	-0.3275880045936573	
-0.17714566391643896	-0.17209126222454066	-0.11707545183701344	-0.1257244679342279	-0.1755248021115058	-0.09943526608795858	0.02229095678099039	-0.1013989999704498	-0.01610996878528744	-0.08836079939631496	0.028859736230235283	0.12146146003213339	-0.02250103627381362	0.013845532432212726	-0.06760431838810163	0.08885366579898235	0.0380869190973872	0.07638944229571427	0.04570940466650961	0.058200697287933256	-0.3607751486301558	-0.0021412211675396033	0.1192039839270337	-0.09205185017910014	-0.22234431482885933	0.01771118093370845	0.04362940677622979	0.08938115288631986	-0.03278560520689184	-0.23200591286962347	
0.0999743733604835	0.03893050213170874	0.08572600121849785	0.07942600736458252	0.00820957383751144	-0.01847777578746424	0.021879264773449727	0.04069961483315551	-0.08717628625361198	0.05123778583165364	-0.05573084392852779	-0.14884057631778677	0.044480478517230554	-0.06974559056164475	-0.04328887184034931	-0.06343781180249224	-0.07071130220064777	-0.09178578424884207	-0.034097037683217764	-0.08600906416958073	0.1189892830184981	-0.09191239197470001	-0.13172501841044296	-0.03696207189886661	0.11991792062883347	0.008292328518818661	0.009128584964576626	-0.15333721192323127	-0.06741523509035283	0.06636343705117434	
0.01307530111308428	0.009506259104105404	-0.024553551483844523	-0.03953614475286786	-0.004917961473390297	-0.05911615340955316	-0.026829767352455066	0.01124743125845356	-0.0409696730352809	-0.06585430854655983	-0.07314547055695532	-0.08484523139142375	-0.025681977744440292	-0.04950773762407426	-0.04626033462912422	-0.03632523986011132	-0.022223104371409518	-0.02332636520879458	-0.001616663497385877	0.0011356460055532303	-0.05887213872224204	-0.021342681391795303	-0.01627020932169254	0.01565107110228032	-0.028679279995937716	0.01257511748268338	-0.005531090874524644	-0.08820111731447812	-0.05338191747018641	0.012019475229045253	
-0.023062071729895	-0.026750063734936214	0.002349577970857112	-0.05389622140814678	-0.05638635641420634	-0.017987007188773625	-0.04486672657565922	-0.07149466078920465	0.005584756356026321	-0.018697049525107486	-0.03877230506979473	-0.05737951169512254	-0.01932066296101419	-0.04127865599651962	0.007617654632397305	0.010506937152233687	0.0038887182488605114	-0.04699632245556456	-0.01073420492834734	-0.07755921644608167	-0.06618603001344953	0.023806543259961115	0.007449425883355493	-0.05747358704457038	-0.03619434073880553	0.01882771022207438	-0.03022498676190072	0.004628655279000014	-0.06261869607001748	-0.0667503461989992	
-0.2571634665566789	-0.2831441429696584	-0.2489882654123518	-0.2452813236763956	-0.21548413479416853	-0.30027326952318134	-0.278179984528744	-0.3012209128477029	-0.2112574724794187	-0.21535910675750217	-0.2842289529132439	-0.26612393982929	-0.2391527695751353	-0.2490132561094191	-0.2507705663406884	-0.2639597783958726	-0.25868898383879513	-0.25336119774860405	-0.2718913136904885	-0.27593084845048077	-0.32602288208361313	-0.2210784263526384	-0.2081144638275473	-0.2285413946023006	-0.3146085514252047	-0.2696882488930946	-0.22413528298844934	-0.19823306626660664	-0.23535360807842884	-0.27196959680081356	
0.7795907199753628	
0.6638585118204439	
0.6683509078896352	
0.6010141453232886	
0.5936672929288943	
0.1855827463062395	
-0.1619916397476056	
0.6835092667276724	
-0.45693783002186067	
0.4779219960007936	
-0.2864439776440629	
-0.7656603030423663	
0.1376583216620064	
-0.3240605783329748	
0.08446785981592501	
-0.5606552313127652	
-0.7031643537021965	
-0.818485288604419	
-0.3916517740101979	
-0.4748048093818611	
1.5035938614943256	
-0.32718491097531954	
-0.8528503684701018	
0.1468349604232739	
0.8990240617392341	
-0.20422481805219894	
-0.26647805237986644	
-1.1251036272237736	
-0.13245634086490676	
0.9832737832623308	
0.23480131407088245	

