1
15	30	30	1	
-0.23132410478928742	-0.25641711329429406	-0.0842813070131662	-0.26483092453656004	-0.41386286873987305	-0.39677467823773094	-0.2019394598233912	-0.9027842948976301	-0.5209096491600689	-0.013163395224343061	-0.03989043823795229	-2.1756093353803996	0.00943492489076965	0.06621497899207049	-0.38994699002846894	-0.030929982192987183	-0.4047257211298468	0.0269934028293031	-0.18376388536477706	-0.2546540640417291	-0.03142321831367896	-0.27973805238431815	-2.3818445640697323	0.07108134163525255	-1.4351306143721652	-0.0060456580269903125	-0.058640516849649195	-1.3144334441977126	-0.6114418766699257	-0.624837546370373	
0.6360858019981456	-0.2043503064320664	-0.40984112817462653	-0.20670159663646973	0.18956308912964046	-0.21808232298811464	-0.2293849126205784	-0.3926248620230284	-0.22180657399537576	-0.5927395555146032	1.7758631597632772	-1.5186996530326258	-0.5130951587081658	-0.6095886996452918	-0.18639528086581786	-0.7692888695644186	-0.19413013764344936	-0.5591437244514351	-0.3423550296669454	-0.16864862170485528	-0.8992118344723006	-0.20642571964996842	-1.6663426909007755	-0.8296843593251797	-0.902541117403336	-0.933606853419078	-0.39785955993226463	-0.5533048048809494	-0.16453910705530855	-0.21105927793432921	
0.4314587881493462	-0.3441581843147698	-0.46758246053561	-0.33707994246908435	0.15440706084847422	-0.2624937251516094	-0.34642294070722635	-0.21561206334338615	-0.22343730954334298	-0.6758680007709422	1.194762715087037	0.3257232149558799	-0.5981377308110678	-0.5886764228429515	-0.21002632556845566	-0.8385396809975647	-0.23819656088120603	-0.6155403047766702	-0.38808966923789934	-0.29443771019758885	-0.9206566607206113	-0.3281384651453424	0.5179381874665205	-0.8674788805263899	-0.1739299324581358	-0.9934917554127222	-0.5352690973311178	-0.004231091005178733	-0.1947648274741879	-0.23932386607700576	
-0.27800452924028773	-0.022970265161481502	0.014204461449076361	0.014147688417543968	-0.204738674009325	0.008062651709680253	0.011613059764066121	0.017650896654855877	-0.048333751747057854	0.016202680544008856	-0.7336771057097157	-0.0113045426910001	0.02273512580090128	0.07398373843410906	-0.03490912775514303	0.05454576392185151	-0.044230775624380145	0.05467652789607678	0.044601840125681774	-0.009824489577456996	0.06855442465903525	-0.06130825117456538	-0.02888691098999017	0.08269362738124235	0.0923042122363621	0.12265929956859555	0.02100999501197271	-0.06452551205929488	-0.059284207788032	-0.05295903622504289	
-0.09076452601085748	0.0026389088850519646	0.060362414497946264	0.07225297681529583	-0.12793179779522615	0.011561230519258994	0.033384052637104665	-0.017480100915145177	-0.012249879562068917	0.1602753044672036	-0.31200749867025745	-0.27578808552068196	0.16103281300206015	0.20387123079744907	-0.00392285740952647	0.1928471822662969	0.04608053631545289	0.1342812079468389	0.060350610344946924	0.03360754861023985	0.17527444023878605	0.023215227644920563	-0.3138323474699719	0.22626437979908864	-0.10521358883033609	0.18956868657894219	0.155746674114957	-0.13650552461761872	-0.062419633885862004	0.0022132823429339868	
0.0670831979602497	-0.19429205394062316	-0.15868168135990093	-0.1728031116593546	-0.05578932781039065	-0.1368215708383885	-0.2164912590613655	-0.1982351682362514	-0.15861607477812922	0.11027364618998797	0.28327963400096806	-0.17196551175688254	-0.07499133017952901	-0.01633109337889501	-0.18620457993117004	0.2684168056296826	-0.2078800848590544	-0.013359061382791087	-0.1160019247270951	-0.21824953816338594	0.5146085079561276	-0.20426224533340567	-0.09378483557231578	0.3442066108334705	-0.22348906508840652	0.4406599684374997	-0.11771845481206115	-0.2082032673505626	-0.1994907138571049	-0.21460005692360265	
-0.1582799141699887	-0.2210406326401442	-0.18950614242081967	-0.22854136028754787	-0.220945917859891	-0.14728469233829145	-0.2922164885487659	-0.12580084091791643	-0.18605678525974684	0.01721038319615705	-0.6025371845583868	0.13661290612044388	-0.26421043762307833	-0.22749934920657144	-0.14809098158533118	0.2699447934963162	-0.21425379851663703	-0.1075045724208454	-0.15818507892662276	-0.30102910806240185	0.3597709140535391	-0.20293034321889028	0.11193931820505365	0.11778313443223765	0.025646582934799437	0.381725957497807	-0.20723410233804385	-0.08291558629763277	-0.17446843740056292	-0.16398307895450373	
0.09730795768149411	-0.2126295198772182	-0.30438046832020016	-0.24949649009377636	-0.021061699682918347	-0.27414674375645276	-0.21512107371904493	-0.1775561960677702	-0.15580747173363846	-0.32616595911965796	0.19033545480546893	0.30787062747889715	-0.30932449587911875	-0.38119863435601925	-0.229381927704559	-0.4489823757936189	-0.24332786074131804	-0.35509407298549206	-0.2734050209173161	-0.2154194952463972	-0.5296344096043244	-0.22803218393905922	0.3521335024164232	-0.4495552197134938	-0.17154770129199226	-0.5455629827484247	-0.36038106201205605	-0.13836543250538058	-0.15564848254257402	-0.22138619458526307	
-0.2673519240916681	-0.20838222063790274	-0.10250055895304651	-0.21039950511642413	-0.2857254149288885	-0.20612899649904406	-0.23703802031555374	-0.3395623182640308	-0.25063670554970263	-0.11397871509217593	-0.35588979667052434	-0.06660733488829644	-0.12123438651410107	-0.05995906111233797	-0.2747248171742141	-0.05353213742900633	-0.25112882673723724	-0.11405345369418282	-0.1579215293523675	-0.20566500678286273	-0.0704056020925982	-0.25662777505836837	-0.03283992181475153	0.0036679265997679473	-0.28817236543654734	-0.012159203911973136	-0.14577524090742008	-0.3404896620349706	-0.3317089580739079	-0.3214658853960586	
-0.5176574268229428	0.07967731150312951	0.29477306577775775	0.09368854477467194	-0.35307660666593543	0.06252588633109862	0.059950987967916654	-0.08754766558354465	-0.02777099512482191	0.3295840193142556	-1.2551623957340616	-0.39655566915290935	0.3529046272359577	0.43817846699508367	-2.463994310979422E-4	0.4673629008725134	-0.058544198633301466	0.36649439782705745	0.19449449610132064	0.04836109230072519	0.5906910959545298	0.06376208163953019	-0.4230874745943703	0.4923003618895374	-0.12273433416834165	0.6163196444007052	0.28493522634933643	-0.2623813234399887	-0.08280548989429638	-0.055339376145746765	
-0.22068787304398266	0.08664904375914138	0.10693851845174675	0.0789353019981956	-0.1598852972790424	0.06972245040480782	0.05472199728115096	-0.11397664020744264	-0.0037682714372563207	0.16298377188543434	-0.36422530801410535	-0.34380061938689543	0.21614952728860437	0.25880976524151017	-0.039956932865528684	0.30002006738338666	-0.005796146413944452	0.21058507619024316	0.10135251997808524	0.06031503872238772	0.31124179070913766	0.06512094447936856	-0.3977386325199872	0.27474566194717487	-0.20845210185736565	0.2738524716340114	0.18075066426674138	-0.18154517293804906	-0.012364802217728408	-0.032290129937329264	
0.154780796734861	-0.3411215443450095	-0.35580414265680327	-0.28840316651855824	0.05979869537751648	-0.2558970909746791	-0.28569778752909414	-0.24857842051727003	-0.25961715688358794	-0.1848794140184116	0.6728240473841003	-0.09437406525898266	-0.37165090748280316	-0.4499745711608579	-0.25077454001976707	-0.05437683961540543	-0.2553773862078098	-0.30058841491403737	-0.2913627920917651	-0.35012019295018765	0.08007358409426987	-0.2590986152562859	-0.04242745685456372	-0.1589223952476594	-0.25845710041012826	0.06789398668430884	-0.36778111728376156	-0.1360933008241552	-0.18708409027173845	-0.1732129118437085	
0.2601115224323696	-0.2176595432692596	-0.24576494502669272	-0.1785509147617869	0.07908653712056511	-0.09546555370643367	-0.23440605099855955	-0.05525132852028435	-0.14182188423508799	-0.1670867260345375	0.3141090410038163	-0.008907695832009965	-0.25658778271219856	-0.3656075499652765	-0.09906882932278355	-0.07100971258988856	-0.06391396689914705	-0.30321513359547725	-0.1837400063531311	-0.22352524300901597	-0.0390055104839299	-0.12299084002228185	-0.07575386485719542	-0.1682358706448145	-0.021078387159850547	-0.07380620885976744	-0.2918798365023544	-0.019200864444525723	-0.04182929698898803	-0.10757852234569887	
-0.18031841326814224	-0.14600470734001486	-0.16357121410589004	-0.08162476256776799	-0.19416664350609208	-0.10412124698403033	-0.12838613032725676	-0.11143474498341609	-0.1388412484297976	-0.10741515886688924	-0.5634050639654805	0.07657235961124442	-0.10841503520735324	-0.1562866270469672	-0.1143425480890174	-0.056086154697706746	-0.1299240056922424	-0.1346454151827271	-0.13648546847967843	-0.06990847655689492	-0.0965775263160587	-0.05476899631534371	0.0547644843330093	-0.0644027410217225	-0.059915087672247076	-0.13042044989087243	-0.11134468234904049	-0.1666492885115091	-0.1257980041100531	-0.10724509262209932	
-0.38622201462780037	-0.13938111811910864	-0.08138498455110164	-0.13402366985995345	-0.31032238116194244	-0.11112683601789294	-0.15344157115457457	-0.14227527459862804	-0.12878283336560625	-0.05561937941520523	-0.6818247681882	0.016085718085103014	-0.08824740914880219	-0.0851030602060967	-0.13943052114996202	0.0035072361617251146	-0.15965868480992548	-0.09441734709237896	-0.15724096426442677	-0.17319382828305746	0.05037935608814443	-0.10090136568813257	0.0644767665955105	0.053061972426156505	-0.1275011819824401	0.08796246665011848	-0.02687028012840928	-0.21980800110091128	-0.14002129281322406	-0.1383300175563355	
-0.48286300241995833	-0.14082810452201916	-0.11478573151600927	-0.18494757533601655	-0.4034051146017808	-0.20006005475789207	-0.1897548394882019	-0.33209826269380854	-0.3009915981707269	-0.11859285324948277	-1.2955031480422659	0.06133620694384023	-0.04898241972495587	0.019060731274108497	-0.27236537518396453	0.03442964994805206	-0.20195843606162067	-0.0402343665362588	-0.13171701097898697	-0.22412074961616657	-0.009565577113772353	-0.23293431961411903	0.15822283803905668	-8.62735833250406E-6	-0.237130915820828	0.07743802959099255	-0.05594188239610592	-0.3028596198596274	-0.31934962052508986	-0.26264250125414523	
0.15936338083376234	0.11826875253025293	0.12591893813362956	0.050073415896257044	0.11776742632125513	-0.0625743846678576	-0.1170356125206025	0.12144816077770955	-0.226874040356871	0.07954826417163326	-0.20110501090101024	-0.3165964221500969	-0.015283278038589735	-0.18871983818018997	-0.06967139968145318	-0.2888556804894443	-0.29612600654551025	-0.31964131624666414	-0.24176247082553204	-0.20104944677265027	0.324546903665709	-0.1932209222050141	-0.3380170217365277	-0.08740095915511151	0.18563383358018365	-0.15040884862636641	-0.18762931781737308	-0.3838806187659891	-0.1636696015728889	0.21449420631966998	
-0.11628698127669045	-0.0894480712983754	-0.033250404951544126	-0.06984717200514295	-0.06878541004290084	-0.027453510468443076	0.020387574840296855	-0.059734061488570606	0.024946036718923086	-0.09314954990152596	0.03821403739250333	0.06897172349204134	-0.004912321074439235	-0.01363802171785456	0.036133164820072096	0.021433507611461077	0.04996866365034469	0.09968248828339664	0.02477686924975002	0.04935196210839895	-0.09114492658919629	0.04018238108120021	0.027555556621494476	0.025845399328841726	-0.029553247480936556	0.020238473622564392	-0.013247077907845515	0.11341497631717812	-0.005816085881995287	-0.07053815384653436	
-0.14641730370182834	-0.09874906011908807	-0.108698466464803	-0.11399900494446012	-0.05390759949635579	-0.02383141210929912	0.027457954490123188	-0.09820383825050649	0.036588873698411815	-0.03617307985924804	-0.013163288088799399	0.10501558911226923	-0.03776518329955504	0.0493033052859595	-0.041015055207937856	0.057955929868837845	0.10951646810989576	0.051965161493417074	0.004120834998424922	0.04143266115897455	-0.23543420407890453	0.035892337311054005	0.12771758152902007	-0.07477514683725202	-0.14319822560814688	0.003177117220760422	0.009524050372313027	0.12534907582536353	0.008673002486971131	-0.09543077385640525	
-0.07359752406218008	-0.023502324396997454	-0.07793867157937703	-0.10083188726417461	-0.06333439582444127	-0.06321513077116238	-0.004002636802570065	-0.04698386080905312	0.052246701974043686	-0.0899186546046049	0.0169952301721723	0.0037447187022665537	-0.014279174170373467	-0.03644135005821917	0.03065192828801812	0.07596161397216816	-0.00399087384199696	0.07556359911878958	0.04872374924920848	-0.017060859716738097	-0.08141874167395961	0.04079016251639853	0.04303074143571241	-0.058547205584571015	-0.05511545408499448	-0.008244400954630072	0.03729165050781942	0.05726218063250059	0.02352621558457066	-0.1327885367480106	
0.07058368054663523	0.039432319602024236	0.004782961131531061	-0.007095301001667772	0.03722853014865068	-0.008213885391124071	-0.051956631222176204	0.01976767107226379	-0.09010311835232591	0.027110807497942317	-0.015057456621613344	-0.12892159216152482	-0.05968098210489045	-0.05245471241477306	-0.030756842133149775	-0.10107603882163974	-0.05280883274467725	-0.0577617617647277	-0.06654522069415385	-0.11228966590773078	0.07636513334380578	-0.09949403638422179	-0.06312627152211757	-0.021360721898681503	0.003479626712667674	-0.04312740947375773	-0.020886383088298092	-0.14653296035410798	-0.047837555812515684	0.04025740362758721	
3.6427255464260855E-4	0.025872339711767472	-0.03747029995903623	-0.06905415471910455	-0.014084705241428084	0.023879149468706624	0.028692843139562486	-0.03795940066693398	0.03859840568577167	0.002057897288969711	0.00524467614299006	0.016108908723169883	-0.059132961708031624	0.0020487310233064833	-0.04635938408386615	0.010769310359608009	-0.026915622457529657	-0.04034819238769478	-6.254788795174125E-4	-0.010739076925020479	-0.04522114725247348	0.009342188279102171	-0.013140008275810112	-0.03374460292260543	0.01548857854964834	-0.04259910387229688	-0.014763542577295714	-0.03043075844098293	-0.03860447547857206	0.00442185783162025	
-0.060765731155830734	-0.046984614515319476	-0.056348386207243306	-0.03417317566923964	-0.10549538526888472	0.012040831932338299	0.028829585182860166	-0.12226071389180455	0.04228977083595426	-0.06920016384434015	0.05336345916366756	0.048002244373236365	0.005924899479707878	0.06454074707017052	0.014553116252233702	0.08177878825425992	0.032544117786216374	0.11348416121425144	0.01995922818071327	0.016737893626800886	-0.19263803432055218	0.06362321038677424	0.1277363637299356	0.013570545403404764	-0.14508369265298063	0.03705393360608634	0.05610260984411591	0.13526510503307443	-0.025254557458828052	-0.14099605549279737	
0.001519618757166236	0.02756950963884589	0.02721322194959515	0.027151797077243627	-0.01855351603446479	-0.004812956866872007	-0.03651021716488188	0.036501640918345714	-0.03309896739463904	0.04202162104152268	0.03450379661366749	-0.03791910192050484	-0.024068647892284623	0.021464813867137972	-0.0027295612326664	-0.02845983473981403	-0.059251718704924614	-0.02620998879370964	-0.03441800427550043	-0.0527810550156862	0.047935412733351085	-0.01968203258403456	-0.015347523562278743	0.01339509160176477	0.02412458484618931	-0.03726677998096363	-0.05433706768329807	-0.06452280514206378	0.026861323837089682	0.07178308152794083	
0.009563949246487385	0.019302063573083665	-0.04049065073966941	0.03859822022789542	0.0319081052172347	0.028373054746646375	-0.016906052017687866	0.026303306248201222	0.035766397840609414	-0.03633288422525708	0.0028266452480035778	-0.04719183855722404	0.01804339936591022	-0.0024408842956278906	0.019298247352251205	0.021427200842944732	0.025595270017152078	-0.02794130302816549	-0.046854890164468505	-0.010934743634128498	-0.013785821218491753	-0.04128760133619911	0.03960837708471431	0.01763609195221369	-0.01057275146029685	0.03101185942205758	-0.037962143530455156	0.039826700415211316	0.005929679854292205	-0.045592746170144104	
-0.12553397098567615	-0.10157643528142388	-0.06588368154383045	-0.11823846112628848	-0.08982772375312133	-0.009557848757134293	-0.02908092449974408	-0.16148513346206236	0.05518666092881522	-0.09650175979918484	-0.007202903285206087	0.10454390973594557	-0.026887032522046796	0.0637402688905904	-0.0483896142902141	0.06056674875945778	0.14159101707055094	0.09010270317691095	0.1057460337839011	0.034351202720241246	-0.23875786434122195	0.026894796070759137	0.15341150087295274	-0.03799092905566799	-0.11296322298605652	-0.03021011683554581	0.020699879213011127	0.2273964125331802	-0.03300646540651295	-0.16999754639566594	
0.3092862553106347	0.2821157218275677	0.1996904492069089	0.17056514433659195	0.1537197900829299	-0.017303690874248937	-0.2278703696573284	0.23542394300921385	-0.4058003125635978	0.13626227357155682	-0.2839451509635379	-0.5211027388861461	-0.03599667681380985	-0.2563629832480186	-0.1493762994240245	-0.47472145453174713	-0.4892955675287137	-0.5520034745679412	-0.3425509197177572	-0.4087780246549335	0.6358422750576144	-0.2494374277179456	-0.5960999658875309	-0.03378651682167982	0.3711639796229726	-0.24453410816810292	-0.26034615417905893	-0.7316497694549556	-0.22251721051621817	0.42420505400202957	
0.35118361773003226	0.3127746992303701	0.32492875593139	0.3177305654128577	0.2701088806996441	0.08875871892479865	-0.07359669842153284	0.3455064861464843	-0.24534766083034112	0.19367833368716397	-0.08441376632933739	-0.3375414576786893	0.05620218037415466	-0.1895048474054664	0.021477956213412416	-0.26785047093039444	-0.3330259471120671	-0.40972086441640454	-0.1978247874522454	-0.1978789921382401	0.6697648399662388	-0.18665245923178028	-0.3977582004549901	0.06769040454243608	0.4245099475656123	-0.11882892009330012	-0.1601567347983642	-0.5379014400389864	-0.07467207087119643	0.4666896002195342	
-0.17608371246237467	-0.08965959666442601	-0.0837772778952723	-0.10601534108314817	-0.11311486117038475	-0.0743741018365026	-0.021014414483448436	-0.08142557751199196	0.05039474326095272	-0.14049012683298037	0.04502381680576374	0.16138475332758745	-0.017213511903296785	0.05047241375866422	-0.04939784292468725	0.08129063662115067	0.10187173746134923	0.15349479843924008	0.01899001917242576	0.10653007767637448	-0.2688783886927765	0.0931340785085591	0.15125159992227422	-0.03561057383734825	-0.17454654062317057	-0.017539450563594444	0.03188570331157394	0.2414544055015672	0.047864111613464926	-0.15069577759942832	
-0.1884853610337391	-0.13792016738158255	-0.1597281297430067	-0.16565920909924226	-0.15576412502151063	-0.07800377011115277	0.05181893172436049	-0.09712456389219422	0.037192049341506765	-0.12090001627535876	0.09599442984983306	0.15447795637203762	-0.04701200154918983	0.08214680078523569	-0.04638530110353684	0.09501988896211826	0.1698178816466946	0.12194061276060496	0.10592838012477357	0.08284856613924643	-0.3372764494233469	0.07801360428586557	0.1575739750472692	0.010549450335294213	-0.21773378770572502	0.009543209388873907	0.06036631802428556	0.18385517675975435	-0.013304780607566654	-0.19052077489230154	
-0.022097595179885562	-0.015181163681938519	-0.03537055765383962	0.020247252843561252	-0.0319532713897474	-0.06322046205260835	-0.004090361301273192	-0.00898546057353942	0.015164304503648867	0.02484550323254899	-0.025395501349405103	0.021598690363738852	0.0034529387704752175	0.0382862619415927	-0.03112776486317977	0.0025787881773052038	0.017626152095796977	-0.017156444815487518	0.017939701083534865	-0.02878588012710451	-0.09572358599953383	-0.0428885578045135	0.02600815692604344	0.012006862734011371	-0.04615989173255802	0.02365248369143648	0.03790520036714722	0.002892296470155661	-0.047730203850007376	-0.07620570514235339	
-0.1917513141587627	-0.1876830332107249	-0.08848804777222892	-0.14070824523357345	-0.1439887742399513	-0.03926045947946081	-0.029806326181028797	-0.17610951625024512	0.10875622794472842	-0.09075470389496502	0.010285686127036267	0.1605982473592929	-0.05620082555193995	0.0011631981443410136	-0.07195213752124249	0.136586630307195	0.08118139441452474	0.08768697938034377	0.02908608263779078	0.09075320551402442	-0.2590475669500064	0.05909795166264887	0.15980247584287885	-0.029561469707614713	-0.1801642169773536	0.0017917403090430522	0.05691440781362389	0.21321145626932736	0.012554409194113	-0.18963804542299276	
-0.03280805551599943	-0.07156202881532515	-0.054017586900797165	-0.04264013881853462	-0.06396927685614251	0.010096120866475811	0.03929660199162717	-0.06992615108054638	-0.019322153319197496	-0.024574647814741325	-0.0011611181656018719	-0.028755984292562962	-0.036332482169427534	0.04289966539337833	0.025062956577172727	-0.03405445335998256	0.036444355272400294	0.010902402260535937	0.035393013177434124	0.045748280747515455	-0.04475515518353463	-0.022424618915082857	0.053605136325948106	0.0324124632724285	-0.06656448689751371	0.035514413606344886	0.009525678821512814	0.0335490827103185	0.02083874567577059	0.004040969280476696	
-0.13995601999928892	-0.13454173009090348	-0.15477073804960365	-0.15393878109920572	-0.15861012814321868	-0.0017973492753152079	0.020784485421856156	-0.0822537171192084	0.07344753006939658	-0.11432259411604043	0.04444768101737611	0.0985150830999524	-0.0211594191764705	0.07173460833686465	0.0022026906489461444	0.08394622904666657	0.10419979547574178	0.17151531452920932	0.05250280318459696	0.10797530788996829	-0.3184777389615948	0.07849827785575325	0.19380502639964758	-0.050045972179569916	-0.1859464531025977	0.05266398253841242	0.042616290798504416	0.19020250295280217	-0.019806989954780318	-0.23618002026958115	
-0.04749950059197023	-0.07532068778044622	-0.04884659500981813	-0.11372027144841128	-0.04232928499160264	-0.028182391034492826	-0.02396055595395081	-0.104663684829151	0.04800372486918818	-0.050241572004409034	-0.023049394351299848	0.05287426941918325	-0.023974326550976005	0.007762244408147405	-0.006724478227019133	0.05880591079043328	0.061617863675773196	0.05586414386131964	-0.0025752093550368386	3.779477357331246E-4	-0.18320176216754683	-0.02016558343152458	0.10373144998653414	0.007948197007374565	-0.0987292154692264	-0.03592762535385405	0.062221956335559186	0.14240134696811893	-0.03158797811526358	-0.08931793688225513	
-0.08805223819186081	-0.05819112290870192	-0.06413238671131223	-0.04598342254861026	-0.04348518981879702	0.01665004497909322	-0.001626127623902343	-0.10468912604953061	0.07307703193438608	-0.08496290280690412	0.012192430180545458	0.012299007849383604	0.002995368957609146	0.05375287031585593	-0.0556570221872312	0.007729047566632888	0.07722355058190851	0.0557450475113133	0.06583512641150516	-0.01569026510960055	-0.17463100465530348	0.057519998322639376	0.07733540950363701	-0.04944376159817208	-0.03746827604127008	0.00308725632031705	-0.018787421825136104	0.09297640135517787	0.04852330970968386	-0.0927950379446993	
-0.2175947811607584	-0.12100859093809184	-0.15818999135913636	-0.1152016464927838	-0.1362942495573351	-0.08235743295836079	0.04752510016003529	-0.19156342719786718	0.03228459199408174	-0.118836377371054	0.06149414136811896	0.1302768782793606	-0.0355984288133981	0.019650074407012417	-0.034232307556624784	0.10085601374541363	0.1520751154266751	0.14887901780717117	0.03633056113351503	0.11389086878747663	-0.2945558732402328	0.009678857572379018	0.18200455997712583	-0.07992638033353311	-0.2067238603612288	-0.018026662486317777	0.048917080700207345	0.18620609864905335	0.05339849536090184	-0.2169808227217109	
-0.08646211322832599	-0.08714361306795584	-0.09686430211015634	-0.03933065281256179	-0.003163125767795129	-0.027371707457630956	0.05038630520901545	-0.045754996375778324	0.07101340059521925	-0.07716514544034316	-0.02436527905620644	0.033598364511281835	-0.049780182927491194	0.00866762166232537	-0.051077893343028626	-0.013713537557592928	-0.00581656460060056	-0.005053806538272725	0.001937841018351081	0.06377798215719355	-0.16230012199944263	0.05099821677791338	0.044662363709111454	-0.04918284470527902	-0.06988481284698095	0.02481892550502365	-0.007836148410317045	0.0268626726008053	-0.03632699707205291	-0.08801124648068953	
0.4411501508134903	0.36944030263698746	0.4316902812037191	0.3531963573355594	0.3698074376794548	0.12514565174913864	-0.11078953114762956	0.4202129995081876	-0.27039196661912007	0.2601702566191179	-0.2000822906530033	-0.47190430134493855	0.05991058552946607	-0.22948536111636864	0.08839141059097624	-0.2924183097882572	-0.42765871031889874	-0.5182811317842085	-0.22454994884836568	-0.3034826431474716	0.8210113086843767	-0.2046159071348409	-0.49302470918685515	0.09756021124165672	0.49718384130964743	-0.13955978643472408	-0.13587032481893715	-0.6291230987992542	-0.07314193866025973	0.5565345031489828	
-0.1394179813987597	-0.17160154999157162	-0.14596496325609032	-0.16280235589647066	-0.12855459406362554	-0.037123211658042284	0.06260603396690131	-0.1474742161295088	0.09086091554314613	-0.11782697134580515	0.017338601308857362	0.1889729601561165	-0.03533338390996742	0.02571843060192498	-0.060681852558391584	0.13429983519154198	0.1686867868598172	0.15675779096348105	0.10800777188860117	0.07513719173885362	-0.36716078183851886	0.09202045231307034	0.12270852315528506	-0.0035215846927294917	-0.24024567937551905	0.03930735041304983	0.034146290890184595	0.27810973500866787	0.0038572011620671954	-0.2079155427883544	
0.06519762433111716	0.08713573333192509	0.11413252709002385	0.021007054196472235	0.07334989946902135	0.041066316408356486	0.025064469218728923	0.07850221319823818	-0.023056867954909053	0.10117651580743679	-0.04322315147986329	-0.030899255975481394	0.058865244930844655	-0.04512794913636264	0.024666661653870773	-0.012479811568992716	-0.06603090157125155	-0.040875547335538415	-0.05435647563295198	-0.0381430075924941	0.14453218284580724	-0.0671324218600111	-0.10836215065221302	0.011799506671115569	0.1346690244423564	-0.0581489315780919	-0.05769765367136812	-0.14296968841210525	0.01204706285311061	0.10867652763284573	
-0.1535139551409375	-0.12733647819252158	-0.19961130597741839	-0.14190967357798312	-0.17955601771076654	-0.025393802067980448	-0.01984568744678154	-0.1437381299763447	0.028726710775116824	-0.09409240137609776	0.08548018917982454	0.17912137076379345	-0.07095132107097518	0.032694705614960844	-0.06682207836616673	0.08234967471039287	0.1728368115632296	0.1940335243789019	0.03234422264696733	0.03417338879029777	-0.31795295282689245	-0.007375429106461272	0.143299871386635	-0.06045482176621434	-0.19815665863140475	0.030475780387800615	0.02254483672093042	0.26489408880244397	-0.021122964578561228	-0.22204394214271317	
-0.12378743832133847	-0.12336111709146248	-0.06973265360247231	-0.08013189863912284	-0.1287361762102407	-0.0644648558066309	0.05266971112091679	-0.05295563257964691	0.011573806720906734	-0.045397957833360626	0.057115809116787604	0.14814199213953602	0.012902476096541344	0.0419404386552265	-0.034902389577332875	0.11642225676092269	0.06533276272382839	0.1023361933037012	0.07326181614423512	0.08483485287520605	-0.2584311515249669	0.026757557762671906	0.14569612141647564	-0.05676219330143026	-0.16488064185082824	0.04655279742769471	0.07374466022521088	0.11533323962337338	-0.0034781582708608588	-0.1697099210543882	
0.09988481283104632	0.0384408762082147	0.08380493580579956	0.08033138571746296	0.008861971654083034	-0.01332146859394947	0.03486695392789804	0.04004006637003532	-0.06567124168427	0.05276306118400268	-0.039750518840508106	-0.11603698174568335	0.05085250872235878	-0.05261839293164216	-0.036293783038426036	-0.038036173499366686	-0.04018820968635549	-0.057083932112896835	-0.014783123796555702	-0.06437537703492877	0.1450583436376399	-0.07440201037319336	-0.09562590818770038	-0.030848649717847152	0.12073359871104576	0.021923603787674453	0.025176069051356408	-0.10544697038662638	-0.05578896138532971	0.06688783229258519	
0.050778877524659816	0.043153823138214704	0.0077682018945386625	-0.00781420267862341	0.02724354799568522	-0.036926930655126984	-0.008656480226670878	0.04477805327456472	-0.024664603663403343	-0.03682514559593708	-0.05647691083478975	-0.06834564804670983	-0.003441003113886919	-0.03293641604402696	-0.025914460752800142	-0.019916229095740763	-0.005651274337177677	-0.006945365536855263	0.014602236661576234	0.016779685714403744	0.023086050520401857	-0.004311044087551405	3.634844193241608E-4	0.0378317164268518	0.012946248160582145	0.029710090535426854	0.012289536583804352	-0.07009316584358888	-0.035869697635207566	0.05711211563098376	
0.012083641638891572	0.004602157722155407	0.032321369731016965	-0.024212376224695294	-0.026292223606200642	0.003399192927060886	-0.02631581732995649	-0.04028132539799008	0.023307992977308137	0.008599547518415475	-0.021304972129257103	-0.038364508042019345	0.0022629232951915704	-0.02378605919333364	0.027503737834308227	0.028746913821279252	0.02277419512760313	-0.027920764855690155	0.006675996226851386	-0.06045658694120026	0.012734397132203033	0.04178029672115425	0.0269618710141492	-0.03597499425211743	0.0026528992107909795	0.036471775465907214	-0.011662283080842526	0.026589818051262537	-0.04484412464491994	-0.02467668961923452	
-0.09181410250966614	-0.12177280715800709	-0.08921262672976134	-0.09349763061585867	-0.05718257684967612	-0.1575236110700661	-0.13921694539267995	-0.1444592840285624	-0.07624703572584249	-0.060442441702930304	-0.15082939481502253	-0.13715138617177325	-0.09196151203696556	-0.11254974039491528	-0.11283221448395502	-0.1329893661574099	-0.12574878259246458	-0.1261843582469404	-0.13917782836332515	-0.14575677112904875	-0.12610235980647921	-0.08096205250880403	-0.07563979142919344	-0.0824631030427634	-0.1503483974233625	-0.1351138962892262	-0.08253518777086986	-0.07312628370881671	-0.10138435073665547	-0.09729022339505611	
0.8570924652593302	
0.7381417101678486	
0.7371415717756548	
0.6649840504525115	
0.663057877647806	
0.2213551720532266	
-0.1473820570355456	
0.7516747631640266	
-0.46275034185925834	
0.5362882578752142	
-0.2781963811340535	
-0.7944993334108484	
0.1721192669656089	
-0.3194804542043228	
0.11548734701140524	
-0.5812933951697793	
-0.7245991280446114	
-0.8441467640354667	
-0.3974934442581397	
-0.481251344858068	
1.5667984896465137	
-0.32625751846661083	
-0.8849863590260014	
0.17999220785858355	
0.9771322903455978	
-0.1900605890265546	
-0.260060417515955	
-1.1757034418256649	
-0.11692518157029257	
1.0691150316708	
0.2745082227949991	

