0
15	30	1	
-0.23132410478928742	-0.25641711329429406	-0.0842813070131662	-0.26483092453656004	-0.41386286873987305	-0.39677467823773094	-0.2019394598233912	-0.9027842948976301	-0.5209096491600689	-0.013163395224343061	-0.03989043823795229	-2.1756093353803996	0.00943492489076965	0.06621497899207049	-0.38994699002846894	-0.030929982192987183	-0.4047257211298468	0.0269934028293031	-0.18376388536477706	-0.2546540640417291	-0.03142321831367896	-0.27973805238431815	-2.3818445640697323	0.07108134163525255	-1.4351306143721652	-0.0060456580269903125	-0.058640516849649195	-1.3144334441977126	-0.6114418766699257	-0.624837546370373	
0.6360858019981456	-0.2043503064320664	-0.40984112817462653	-0.20670159663646973	0.18956308912964046	-0.21808232298811464	-0.2293849126205784	-0.3926248620230284	-0.22180657399537576	-0.5927395555146032	1.7758631597632772	-1.5186996530326258	-0.5130951587081658	-0.6095886996452918	-0.18639528086581786	-0.7692888695644186	-0.19413013764344936	-0.5591437244514351	-0.3423550296669454	-0.16864862170485528	-0.8992118344723006	-0.20642571964996842	-1.6663426909007755	-0.8296843593251797	-0.902541117403336	-0.933606853419078	-0.39785955993226463	-0.5533048048809494	-0.16453910705530855	-0.21105927793432921	
0.4314587881493462	-0.3441581843147698	-0.46758246053561	-0.33707994246908435	0.15440706084847422	-0.2624937251516094	-0.34642294070722635	-0.21561206334338615	-0.22343730954334298	-0.6758680007709422	1.194762715087037	0.3257232149558799	-0.5981377308110678	-0.5886764228429515	-0.21002632556845566	-0.8385396809975647	-0.23819656088120603	-0.6155403047766702	-0.38808966923789934	-0.29443771019758885	-0.9206566607206113	-0.3281384651453424	0.5179381874665205	-0.8674788805263899	-0.1739299324581358	-0.9934917554127222	-0.5352690973311178	-0.004231091005178733	-0.1947648274741879	-0.23932386607700576	
-0.27800452924028773	-0.022970265161481502	0.014204461449076361	0.014147688417543968	-0.204738674009325	0.008062651709680253	0.011613059764066121	0.017650896654855877	-0.048333751747057854	0.016202680544008856	-0.7336771057097157	-0.0113045426910001	0.02273512580090128	0.07398373843410906	-0.03490912775514303	0.05454576392185151	-0.044230775624380145	0.05467652789607678	0.044601840125681774	-0.009824489577456996	0.06855442465903525	-0.06130825117456538	-0.02888691098999017	0.08269362738124235	0.0923042122363621	0.12265929956859555	0.02100999501197271	-0.06452551205929488	-0.059284207788032	-0.05295903622504289	
-0.09076452601085748	0.0026389088850519646	0.060362414497946264	0.07225297681529583	-0.12793179779522615	0.011561230519258994	0.033384052637104665	-0.017480100915145177	-0.012249879562068917	0.1602753044672036	-0.31200749867025745	-0.27578808552068196	0.16103281300206015	0.20387123079744907	-0.00392285740952647	0.1928471822662969	0.04608053631545289	0.1342812079468389	0.060350610344946924	0.03360754861023985	0.17527444023878605	0.023215227644920563	-0.3138323474699719	0.22626437979908864	-0.10521358883033609	0.18956868657894219	0.155746674114957	-0.13650552461761872	-0.062419633885862004	0.0022132823429339868	
0.0670831979602497	-0.19429205394062316	-0.15868168135990093	-0.1728031116593546	-0.05578932781039065	-0.1368215708383885	-0.2164912590613655	-0.1982351682362514	-0.15861607477812922	0.11027364618998797	0.28327963400096806	-0.17196551175688254	-0.07499133017952901	-0.01633109337889501	-0.18620457993117004	0.2684168056296826	-0.2078800848590544	-0.013359061382791087	-0.1160019247270951	-0.21824953816338594	0.5146085079561276	-0.20426224533340567	-0.09378483557231578	0.3442066108334705	-0.22348906508840652	0.4406599684374997	-0.11771845481206115	-0.2082032673505626	-0.1994907138571049	-0.21460005692360265	
-0.1582799141699887	-0.2210406326401442	-0.18950614242081967	-0.22854136028754787	-0.220945917859891	-0.14728469233829145	-0.2922164885487659	-0.12580084091791643	-0.18605678525974684	0.01721038319615705	-0.6025371845583868	0.13661290612044388	-0.26421043762307833	-0.22749934920657144	-0.14809098158533118	0.2699447934963162	-0.21425379851663703	-0.1075045724208454	-0.15818507892662276	-0.30102910806240185	0.3597709140535391	-0.20293034321889028	0.11193931820505365	0.11778313443223765	0.025646582934799437	0.381725957497807	-0.20723410233804385	-0.08291558629763277	-0.17446843740056292	-0.16398307895450373	
0.09730795768149411	-0.2126295198772182	-0.30438046832020016	-0.24949649009377636	-0.021061699682918347	-0.27414674375645276	-0.21512107371904493	-0.1775561960677702	-0.15580747173363846	-0.32616595911965796	0.19033545480546893	0.30787062747889715	-0.30932449587911875	-0.38119863435601925	-0.229381927704559	-0.4489823757936189	-0.24332786074131804	-0.35509407298549206	-0.2734050209173161	-0.2154194952463972	-0.5296344096043244	-0.22803218393905922	0.3521335024164232	-0.4495552197134938	-0.17154770129199226	-0.5455629827484247	-0.36038106201205605	-0.13836543250538058	-0.15564848254257402	-0.22138619458526307	
-0.2673519240916681	-0.20838222063790274	-0.10250055895304651	-0.21039950511642413	-0.2857254149288885	-0.20612899649904406	-0.23703802031555374	-0.3395623182640308	-0.25063670554970263	-0.11397871509217593	-0.35588979667052434	-0.06660733488829644	-0.12123438651410107	-0.05995906111233797	-0.2747248171742141	-0.05353213742900633	-0.25112882673723724	-0.11405345369418282	-0.1579215293523675	-0.20566500678286273	-0.0704056020925982	-0.25662777505836837	-0.03283992181475153	0.0036679265997679473	-0.28817236543654734	-0.012159203911973136	-0.14577524090742008	-0.3404896620349706	-0.3317089580739079	-0.3214658853960586	
-0.5176574268229428	0.07967731150312951	0.29477306577775775	0.09368854477467194	-0.35307660666593543	0.06252588633109862	0.059950987967916654	-0.08754766558354465	-0.02777099512482191	0.3295840193142556	-1.2551623957340616	-0.39655566915290935	0.3529046272359577	0.43817846699508367	-2.463994310979422E-4	0.4673629008725134	-0.058544198633301466	0.36649439782705745	0.19449449610132064	0.04836109230072519	0.5906910959545298	0.06376208163953019	-0.4230874745943703	0.4923003618895374	-0.12273433416834165	0.6163196444007052	0.28493522634933643	-0.2623813234399887	-0.08280548989429638	-0.055339376145746765	
-0.22068787304398266	0.08664904375914138	0.10693851845174675	0.0789353019981956	-0.1598852972790424	0.06972245040480782	0.05472199728115096	-0.11397664020744264	-0.0037682714372563207	0.16298377188543434	-0.36422530801410535	-0.34380061938689543	0.21614952728860437	0.25880976524151017	-0.039956932865528684	0.30002006738338666	-0.005796146413944452	0.21058507619024316	0.10135251997808524	0.06031503872238772	0.31124179070913766	0.06512094447936856	-0.3977386325199872	0.27474566194717487	-0.20845210185736565	0.2738524716340114	0.18075066426674138	-0.18154517293804906	-0.012364802217728408	-0.032290129937329264	
0.154780796734861	-0.3411215443450095	-0.35580414265680327	-0.28840316651855824	0.05979869537751648	-0.2558970909746791	-0.28569778752909414	-0.24857842051727003	-0.25961715688358794	-0.1848794140184116	0.6728240473841003	-0.09437406525898266	-0.37165090748280316	-0.4499745711608579	-0.25077454001976707	-0.05437683961540543	-0.2553773862078098	-0.30058841491403737	-0.2913627920917651	-0.35012019295018765	0.08007358409426987	-0.2590986152562859	-0.04242745685456372	-0.1589223952476594	-0.25845710041012826	0.06789398668430884	-0.36778111728376156	-0.1360933008241552	-0.18708409027173845	-0.1732129118437085	
0.2601115224323696	-0.2176595432692596	-0.24576494502669272	-0.1785509147617869	0.07908653712056511	-0.09546555370643367	-0.23440605099855955	-0.05525132852028435	-0.14182188423508799	-0.1670867260345375	0.3141090410038163	-0.008907695832009965	-0.25658778271219856	-0.3656075499652765	-0.09906882932278355	-0.07100971258988856	-0.06391396689914705	-0.30321513359547725	-0.1837400063531311	-0.22352524300901597	-0.0390055104839299	-0.12299084002228185	-0.07575386485719542	-0.1682358706448145	-0.021078387159850547	-0.07380620885976744	-0.2918798365023544	-0.019200864444525723	-0.04182929698898803	-0.10757852234569887	
-0.18031841326814224	-0.14600470734001486	-0.16357121410589004	-0.08162476256776799	-0.19416664350609208	-0.10412124698403033	-0.12838613032725676	-0.11143474498341609	-0.1388412484297976	-0.10741515886688924	-0.5634050639654805	0.07657235961124442	-0.10841503520735324	-0.1562866270469672	-0.1143425480890174	-0.056086154697706746	-0.1299240056922424	-0.1346454151827271	-0.13648546847967843	-0.06990847655689492	-0.0965775263160587	-0.05476899631534371	0.0547644843330093	-0.0644027410217225	-0.059915087672247076	-0.13042044989087243	-0.11134468234904049	-0.1666492885115091	-0.1257980041100531	-0.10724509262209932	
-0.38622201462780037	-0.13938111811910864	-0.08138498455110164	-0.13402366985995345	-0.31032238116194244	-0.11112683601789294	-0.15344157115457457	-0.14227527459862804	-0.12878283336560625	-0.05561937941520523	-0.6818247681882	0.016085718085103014	-0.08824740914880219	-0.0851030602060967	-0.13943052114996202	0.0035072361617251146	-0.15965868480992548	-0.09441734709237896	-0.15724096426442677	-0.17319382828305746	0.05037935608814443	-0.10090136568813257	0.0644767665955105	0.053061972426156505	-0.1275011819824401	0.08796246665011848	-0.02687028012840928	-0.21980800110091128	-0.14002129281322406	-0.1383300175563355	
-0.48286300241995833	-0.14082810452201916	-0.11478573151600927	-0.18494757533601655	-0.4034051146017808	-0.20006005475789207	-0.1897548394882019	-0.33209826269380854	-0.3009915981707269	-0.11859285324948277	-1.2955031480422659	0.06133620694384023	-0.04898241972495587	0.019060731274108497	-0.27236537518396453	0.03442964994805206	-0.20195843606162067	-0.0402343665362588	-0.13171701097898697	-0.22412074961616657	-0.009565577113772353	-0.23293431961411903	0.15822283803905668	-8.62735833250406E-6	-0.237130915820828	0.07743802959099255	-0.05594188239610592	-0.3028596198596274	-0.31934962052508986	-0.26264250125414523	
0.4773427483860469	
-0.36851140944158406	
-0.518061268895041	
-0.35624210923229366	
0.1416020640623843	
-0.23158105885299604	
-0.3826490046315562	
0.2685058818046728	
-0.10167694758632975	
-0.5944246562254676	
1.788290256396981	
1.6146844958067152	
-0.6375829140127088	
-0.728109205449447	
-0.18089111081837983	
-0.7689947475784361	
-0.19480891301794462	
-0.626258797269897	
-0.40707769969522833	
-0.3785261868978351	
-0.9173318271948577	
-0.30555374742585256	
1.7918951653575477	
-0.8084704576157294	
0.9254393009179506	
-0.9314121032284752	
-0.5877479953690106	
0.6487457037842039	
-0.0228648283390046	
-0.010108600477177277	
0.9825787877129493

