0
17	34	1	
-0.2897173728537717	-0.40887589578827715	-0.21144349940724536	-0.14117130810947254	-0.2358583932715733	-0.26272566502037237	-1.376832719691473	-0.2998358319540754	-0.22985586281821774	-0.2640912632021362	-0.20361734052877792	0.23551369221506743	-0.1813193868037512	-0.2518624352132826	-3.023504190314565	-0.20004119595624534	-0.07436953934611712	-0.16555566512024789	-0.17933560156692646	-0.17471750265400335	-0.3349388894839707	-0.2612959400839345	0.1719822377475027	0.4280947030690483	-0.31252806648398124	0.2282714391437973	-0.23594908399672665	-0.3654979208897327	-0.5696426653310815	-0.2111258012978345	-0.6159208296424807	-0.37054491337944734	-0.348975581675907	0.6374390640391449	
0.05121190835067986	0.019294499648230174	-0.30541223579009985	-0.29243077587864363	-0.08958888015946762	-0.07985588389828299	1.7693273283057716	-0.12108540028008491	-0.372986767231817	-0.08770652116385604	-0.6014373878438161	0.5157633978680607	0.2776083843778425	-0.15092147982904794	-1.5538859303805825	-0.2518651424496	-0.3919405697982084	-0.33135556690157336	0.32280407383427606	-0.2948554189312209	0.08126887748511114	-0.07159907247932384	-0.6145244132168279	0.7094698381200315	-0.055484086855172414	-0.7467152648866247	-0.22997942431709756	0.015872038550222567	0.24673981144962898	-0.08089566759776325	0.06181001350691681	0.0502062853955266	0.20894631989008725	0.8438618375077181	
-0.07097854704012303	-0.1468153714454793	-0.5733668556202953	-0.6912106669366204	-0.2904599921158379	-0.330924701425536	1.9766227803027854	-0.43717523716548584	-0.68156260002678	-0.3824365611889852	-1.1060411191810369	0.4533672566598157	0.21874988331443798	-0.44419432242876944	0.4491606535920045	-0.5869316819436836	-0.7231897723528831	-0.6105727607707216	0.2796612618882509	-0.5530540033502414	-0.16500863491322446	-0.26659103946724055	-0.8148808650812616	0.7906388953278722	-0.30337319838654064	-0.964693708493016	-0.487216175901691	-0.18918935894976524	0.22117546580746936	-0.3951123586852283	0.04008075650625826	-0.09303387532368973	0.13785448059525862	0.8370300503507659	
-0.08597757252542174	-0.09686732628167391	-0.04027651093207837	-0.051928426299200074	-0.08121366340667405	-0.11639620001962414	-0.7169311104030063	-0.09521944504646063	-0.015434800585058892	-0.02964600824688075	-0.0565806385974794	-0.23200138121731656	-0.18752065315496608	-0.02357476158405643	0.16799499279174865	-0.017975486908893487	-0.08810956699270017	-0.01156932930736999	-0.19365293984170004	-0.04771549589477735	-0.11379810255087812	-0.0319535868091792	-0.07031446228101172	-0.26364161011166265	-0.03478925421337092	-0.11425262913256498	-0.08368306017521747	-0.08045500480255222	-0.17063335135559213	-0.047806360753153115	-0.11925680852022069	-0.10476729395030766	-0.1873590349840353	-0.3786399948452697	
-0.02119015631849207	0.028807439200214332	0.18988105043842787	0.2414442217654036	0.00672348136305867	0.08895089986549656	-0.7525592454708722	0.11476850177262134	0.12436895552990176	0.02354021300161278	0.30494516277310557	-0.21978430348694208	-0.19261247971866952	0.06497720704728227	-0.8345355363748426	0.16877483931162665	0.1832046484248086	0.16294401339943176	-0.1403551578890417	0.129928523533029	-0.05856571450443934	0.08695563391045713	0.35217329464040453	-0.33830630320657	0.0488157650197877	0.4768266525554278	0.08379158052340809	0.04765258424835026	-0.14222567001184339	0.02864976712179992	-0.1289849806624924	5.430776425481374E-4	-0.1035955041254692	-0.2573510322244697	
-0.1465253791563358	-0.12518138463699624	0.1314844633181561	0.030711272227978294	-0.06642121982470443	-0.004090570607192057	0.47441220426253733	0.0630005399434493	0.26253742542123865	-0.023024796124909035	0.49431966363657054	-0.016560857398820957	-0.049946750591573365	0.040859590206456055	-0.3209178425623186	0.07078464943634663	0.07299023359503724	0.13431340359761376	-0.08988933340151344	0.01716786097283592	-0.07846754910333407	-0.020750338962305947	-0.126919321994414	0.08662881742586008	0.010835432680625572	-0.117030301600511	0.03258095225652742	-0.06825184736433716	-0.1686738759934221	-0.06416880193815742	-0.18172167281858811	-0.12929368922541845	-0.11663145990330316	0.12497575380026041	
-0.1370532526503256	-0.17123330269410356	0.13055733861271346	0.055073499552989076	-0.1210087885529285	-0.07484400794362682	-0.44070173412288915	0.05507496613629406	0.26798495419474483	-0.028935678444067636	0.5741673533030385	-0.28703290744564214	-0.2614449542079568	0.04858444477809264	0.3000887575071028	0.08257079258228837	0.004914356482935773	0.11256738745695169	-0.26990236730550876	0.03933145197348348	-0.1378251511581927	-0.1471931365832044	-0.3408866112002001	-0.3459103037373979	-0.08882258443199495	-0.24201635347563466	0.08217470007246361	-0.12122399135366978	-0.21261197951670865	-0.12046060681278303	-0.17385558592284192	-0.1270116490079713	-0.20760486300175277	-0.3881879910355335	
-0.2798483661671413	-0.23101923845495703	-0.2055991346676386	-0.14453465057268078	-0.21196154657929073	-0.22316774430456954	-0.04820260483700466	-0.22383507420992818	-0.20667951944426644	-0.18685970964315765	-0.2229660730411825	-0.1701352675761935	-0.2907129293314338	-0.19725771694864833	-0.31048910727810586	-0.1993799689275423	-0.1027665952136191	-0.2026021918021741	-0.2556689376840672	-0.14286340673350084	-0.20762822388050617	-0.27082874279892755	0.028180577831351833	-0.11363011058573018	-0.2338476596766339	0.029453165199348173	-0.16867308044713814	-0.26231712358973375	-0.22899643902232286	-0.22044920631419576	-0.2587414018391672	-0.2447383393973599	-0.21268624579432074	-0.22158984801603315	
-0.17945601490513668	-0.24206193068405663	-0.14704118395018423	-0.11511790365553899	-0.17587237121895918	-0.15347230060491854	0.1148093802501363	-0.18350055201887572	-0.14222841152225285	-0.20580935311160342	-0.07220973528231868	-0.12985663570651523	-0.17296283222431433	-0.15943886089968914	-0.2876008141379882	-0.19346210201521039	-0.13740286038894245	-0.17037599654575966	-0.15308000143472036	-0.17548917219613122	-0.19762692415421237	-0.20127373779888177	-0.10982920795342647	-0.060427736601631345	-0.21527586708519159	-0.06440503423584085	-0.14759469553723858	-0.14416379551609318	-0.19525882685520873	-0.20209583661308006	-0.21031648889135748	-0.1542637381624921	-0.2005926804931909	-0.0863241242862419	
-0.19567675479146407	-0.1754139537432677	-0.29827234925047963	-0.30572447891986576	-0.2157539697759251	-0.265671200458986	-0.3479271256777801	-0.2726996208458779	-0.32700787444239937	-0.2522026925505591	-0.3152432873876862	-0.3361430788227616	-0.24320864288137742	-0.277858494449443	0.907547917639641	-0.2656983415280046	-0.2522446696051917	-0.31441487482228364	-0.19631018469498668	-0.31700124448642547	-0.18687970602227202	-0.20428663036185427	-0.1761213522112654	-0.44094022516975134	-0.226939560881192	-0.2580912949874309	-0.2452448692689981	-0.23966982524492608	-0.14156119735027928	-0.2875225858567889	-0.15594847919809673	-0.23082233083471707	-0.13984023733618817	-0.5288726450168308	
-0.10066327728415289	-0.022644917612222253	0.1735033459321436	0.24825914025126966	-0.01890114944975665	0.03692856350298928	-1.3922437282452789	0.13419998847427236	0.22788749408300282	0.08896320903559184	0.34490291105765125	-0.43137310262802436	-0.2922458370593251	0.10945801391384853	-0.4871096803887724	0.1630866478670411	0.2859523614724062	0.227969367957934	-0.2908743734853287	0.15808242213232365	-0.05771176462029054	0.013734368414136377	0.4224850597116859	-0.6282891529091889	0.0654644962518093	0.4816572980047437	0.09261087951992446	-0.014485529907988567	-0.28273925469202055	0.07468981076424949	-0.15420541141105554	-0.13858163167266477	-0.24954779202478292	-0.635404330194788	
-0.028154356826567983	-5.993121485338823E-4	0.14812876387250556	0.26589878168454517	0.005557093873045431	0.07118384953187573	-0.7873998379887569	0.10795791749350582	0.22456276574281192	0.11098745348837898	0.351816636945615	-0.21190520378034008	-0.1314050993106232	0.15889626988557481	-0.7956644118710194	0.1374146595091278	0.2795059542367102	0.2182955529992384	-0.16615451656005786	0.18391994840251166	-0.022794777036900943	0.09486442997370273	0.3861105332705164	-0.3928980085968141	0.0880245056963288	0.3996876857592205	0.12247702892691392	-0.018599511733835644	-0.10589415382616556	0.054350294883709516	-0.0538715613484546	0.024855188224449532	-0.16510940467274574	-0.39346632845942975	
-0.04815286974826583	-0.10205965468155245	-0.09259389536573039	-0.16840279407181882	-0.10402956156681423	-0.11422908255709549	0.40509111487123056	-0.0017521428322186817	0.017912887131450613	-0.10701342480683361	0.22631202100054396	0.1694527975278894	0.0037392913706682926	-0.08980400315156989	0.1874907562527127	-0.04310089787849082	-0.20224452893345077	-0.10320240335681331	0.06505969364339162	-0.07423391740663533	-0.09447950020766249	-0.10760444704429256	-0.6790219110949286	0.2802688847959903	-0.0763742358935699	-0.664803307156133	-0.08167858392901971	-0.08036408958425424	-0.035898047032438034	-0.1448529091017896	-0.10582272637297448	-0.13144569144392676	-7.114301358358711E-4	0.2674340228786599	
0.04751053651406016	0.025726266491780787	0.01654773242759472	-0.11258424244867786	-0.034859303814845116	0.007047494001179789	0.7587254500656598	0.04282417307143457	0.10469560638944171	0.03606086802006947	0.2028873336204217	-0.014495625811146502	0.12731606040359464	-0.019320688895377906	0.031792519443813325	-0.0431782965057844	-0.07959962184595126	-0.05212634936894815	0.09510185356174425	-0.06688528387521556	-0.02082819183501218	-0.06844998728040708	-0.47968812873674793	-0.02995384188073562	0.0229043228605017	-0.4476407028010658	-0.022106040622054852	0.011288982650547449	0.05322946257365585	0.0032722683294515434	-0.024353890587020796	-0.020576950344902888	0.03911411950592901	0.02015314560325024	
-0.20353421400298605	-0.12437287968950633	-0.09512552016521922	-0.10942031460076843	-0.11656523285362458	-0.11951124790473994	-0.29854112641717345	-0.1436818861073292	-0.10877967961424498	-0.12458687587772359	-0.06630560050610894	-0.1860377503977112	-0.20436211105178148	-0.13366157706915394	-0.0053566609018540975	-0.09139696995021049	-0.07526874900877566	-0.11376265836472114	-0.227203474102726	-0.10810160186299188	-0.16305284464550743	-0.16509117056182673	-0.11706765609762161	-0.2739841838257461	-0.10451978483415318	-0.0844270328359268	-0.1658456589524217	-0.13737365589101205	-0.16704979797767527	-0.09612690353541886	-0.16618190236668387	-0.16800973257431032	-0.1942180547067022	-0.30816068349318987	
-0.22088313306566576	-0.20970778874794915	0.04036335391421115	0.02827462602923132	-0.09609417656370688	-0.1305398568876289	-0.6364248467429616	-0.027349892622937102	-0.002707648333404547	-0.09886702440275397	0.1718655539843799	-0.2738676340364974	-0.31220366732602334	-0.08132221544422556	0.03158354888893163	0.02321973872770783	0.001108334441205984	0.015483688256408274	-0.3118496916179567	-0.004159729892845222	-0.23654294446491123	-0.12112072982049231	0.02408866002942337	-0.30525605166902137	-0.08778859586597482	0.09160819402396433	-0.013471913994365769	-0.18883556831887718	-0.33783691084881307	-0.05301545126242576	-0.22859721277244127	-0.17731719939184518	-0.2540852278834911	-0.4030768959597091	
-0.16672260545670267	-0.1995669494463484	-0.4325307332574425	-0.4395706896304589	-0.3091849922711604	-0.275153424452733	0.10333870779888733	-0.3300782392173807	-0.37745041872722157	-0.28083395479552303	-0.5588420708989005	-0.18398812255347763	-0.12096340424444395	-0.3078811661226587	0.7133592749949287	-0.3555374659267324	-0.4422346664387804	-0.3600124611621215	-0.1366800083398817	-0.40802399171799275	-0.16882341248531335	-0.23591967673895145	-0.4903316828931393	-0.23664690835449115	-0.30785126266058765	-0.476061141973844	-0.37112433434548286	-0.24227954420108055	-0.09827376865942432	-0.25836699325311	-0.09566630652379342	-0.17952600185756237	-0.17324165989468354	-0.3779364973393506	
-0.3377154987529283	-0.2174949648762717	-0.13030699157325185	-0.07414632278814373	-0.26771865793581745	-0.2522787037529413	-1.0441421686491352	-0.2137130039084814	-0.13737630922596508	-0.2244286204487394	-0.16803611827629344	-0.5731139667566492	-0.3935661464984371	-0.21452091836853018	-0.4042782771447868	-0.16341897399695327	-0.13010716016516974	-0.10662487017253285	-0.4409396237832304	-0.1358820577941768	-0.3107257967317293	-0.19734946043410279	-0.019211116643402044	-0.7265916533638004	-0.20782643775981088	0.04431062984797427	-0.18911501073556938	-0.2172245428751938	-0.42106435209767124	-0.227325350532702	-0.36152505066639556	-0.31154793567359895	-0.4152209487399173	-0.8727793105857575	
-0.09237109839609252	
-0.1664942037491691	
-0.5179104462474442	
-0.6272047065600944	
-0.2397291803664493	
-0.30302502466001335	
1.4841552870995767	
-0.3980312462792829	
-0.5949669318644968	
-0.31577980185140175	
-0.9879570792299777	
0.43631805742553315	
0.13813061772932714	
-0.3768718892411486	
2.655015646359286	
-0.47284596598082446	
-0.6532422760949187	
-0.5362477702782682	
0.17054710625458805	
-0.49286937653965907	
-0.13999945394580954	
-0.2567278461585005	
-1.0462298441658113	
0.6939998998057525	
-0.2887665516217508	
-1.132223817937851	
-0.4095523806326392	
-0.20440708918560013	
0.055026770767400965	
-0.31497767245903163	
0.020913692658414914	
-0.13505681041079737	
0.049040158749566604	
0.8160620700301854	
0.4357745303153161	

